{"modelJson":"{\"class_name\":\"Sequential\",\"config\":{\"name\":\"sequential_1\",\"layers\":[{\"class_name\":\"Dense\",\"config\":{\"units\":16,\"activation\":\"relu\",\"use_bias\":true,\"kernel_initializer\":{\"class_name\":\"VarianceScaling\",\"config\":{\"scale\":1,\"mode\":\"fan_avg\",\"distribution\":\"normal\",\"seed\":null}},\"bias_initializer\":{\"class_name\":\"Zeros\",\"config\":{}},\"kernel_regularizer\":null,\"bias_regularizer\":null,\"activity_regularizer\":null,\"kernel_constraint\":null,\"bias_constraint\":null,\"name\":\"dense_Dense1\",\"trainable\":true,\"batch_input_shape\":[null,4],\"dtype\":\"float32\"}},{\"class_name\":\"Dense\",\"config\":{\"units\":8,\"activation\":\"relu\",\"use_bias\":true,\"kernel_initializer\":{\"class_name\":\"VarianceScaling\",\"config\":{\"scale\":1,\"mode\":\"fan_avg\",\"distribution\":\"normal\",\"seed\":null}},\"bias_initializer\":{\"class_name\":\"Zeros\",\"config\":{}},\"kernel_regularizer\":null,\"bias_regularizer\":null,\"activity_regularizer\":null,\"kernel_constraint\":null,\"bias_constraint\":null,\"name\":\"dense_Dense2\",\"trainable\":true}},{\"class_name\":\"Dense\",\"config\":{\"units\":5,\"activation\":\"softmax\",\"use_bias\":true,\"kernel_initializer\":{\"class_name\":\"VarianceScaling\",\"config\":{\"scale\":1,\"mode\":\"fan_avg\",\"distribution\":\"normal\",\"seed\":null}},\"bias_initializer\":{\"class_name\":\"Zeros\",\"config\":{}},\"kernel_regularizer\":null,\"bias_regularizer\":null,\"activity_regularizer\":null,\"kernel_constraint\":null,\"bias_constraint\":null,\"name\":\"dense_Dense3\",\"trainable\":true}}]},\"keras_version\":\"tfjs-layers 4.22.0\",\"backend\":\"tensor_flow.js\"}","weightsData":[[-0.29727619886398315,0.8777991533279419,0.5176464915275574,-0.37690186500549316,0.2222272753715515,0.27620264887809753,0.3137725293636322,0.9342908263206482,-0.22908303141593933,-0.0163897518068552,0.35161617398262024,0.21912257373332977,-0.39361315965652466,-0.11638283729553223,0.4160190224647522,-0.11235985159873962,-0.17178921401500702,0.32289591431617737,0.09140218794345856,0.0017745625227689743,0.39320337772369385,0.9057000875473022,0.5357406735420227,-0.022363482043147087,0.059984106570482254,-0.0004221135750412941,-0.1524893045425415,-0.11319632828235626,0.6216551661491394,0.01134208869189024,0.25837260484695435,-0.5526304244995117,0.01694364845752716,-0.3808375298976898,0.31940197944641113,0.43637147545814514,0.39433252811431885,-0.10366653650999069,-0.42985326051712036,0.45383965969085693,-0.28111401200294495,-0.0026469959411770105,-0.18207687139511108,0.6326358318328857,0.7213935852050781,0.7979985475540161,0.3909687101840973,-0.037690434604883194,-0.43016165494918823,0.09889256954193115,0.37714508175849915,0.012888200581073761,0.4029899537563324,-0.08720195293426514,0.44713717699050903,0.013200029730796814,-0.4040350615978241,-0.4030424654483795,-0.4237367808818817,0.5394943952560425,-0.17543484270572662,0.42019858956336975,0.033592887222766876,0.3571501076221466],[0,-0.08562576770782471,0.1861136257648468,0.12997058033943176,0.2433011382818222,-0.05001644417643547,-0.03269389644265175,0.2743353247642517,0,-0.009648085571825504,-0.05870242789387703,0.18997767567634583,0.2308977246284485,0.21932700276374817,0.17370718717575073,0.1535864919424057],[-0.38968193531036377,0.4236823618412018,0.05079559236764908,0.07152795046567917,0.5034942030906677,-0.10389341413974762,-0.2543657422065735,-0.13204334676265717,0.38835975527763367,0.33110857009887695,-0.2741739749908447,0.26532289385795593,-0.015992220491170883,0.29906579852104187,-0.9464936852455139,-0.37644490599632263,0.5761539936065674,-0.1854802966117859,0.19257010519504547,-0.4239051640033722,-0.3624996244907379,-0.10670454800128937,-0.20326665043830872,0.006749771535396576,-0.1552617996931076,0.28582316637039185,-0.05848094820976257,-0.19371241331100464,-0.061461158096790314,0.09012598544359207,0.6516059637069702,0.43864643573760986,0.4488435983657837,-0.050745874643325806,-0.0005439228843897581,0.17925861477851868,0.13346971571445465,-0.08660417050123215,0.14576688408851624,0.10337235033512115,0.3117685317993164,-0.1323067843914032,-0.19633565843105316,-0.12686429917812347,-0.3258574306964874,-0.508748471736908,-0.7770683169364929,-0.0412360243499279,0.11599625647068024,0.2524833679199219,-0.3205938935279846,0.17231939733028412,-0.17087788879871368,-0.2730773687362671,-0.35026466846466064,-0.024309616535902023,0.8126252293586731,-0.4391591250896454,-0.09225112199783325,0.0665634274482727,0.14638175070285797,-0.1633513867855072,0.18061110377311707,0.012909451499581337,-0.2902863323688507,-0.4761544167995453,0.13001930713653564,-0.26299765706062317,-0.2501014173030853,-0.47997885942459106,0.2959386706352234,-0.0038622887805104256,0.16145192086696625,0.1993790864944458,0.02071814239025116,0.2524510324001312,-0.37228769063949585,0.3377673625946045,0.044705938547849655,0.01960957795381546,-0.09896932542324066,-0.20121675729751587,0.286674827337265,-0.13509264588356018,-0.4043292999267578,0.2724769115447998,0.5198557376861572,0.20114855468273163,0.27005845308303833,-0.12467197328805923,0.09749045222997665,0.21757343411445618,0.05716315284371376,-0.20326459407806396,0.4011588394641876,-0.1557934731245041,0.2909943461418152,0.25182265043258667,-0.18927229940891266,0.011063859798014164,-0.4575892984867096,0.005690522026270628,0.30118444561958313,-0.061549391597509384,0.20484612882137299,-0.11063364893198013,-0.0430779755115509,-0.3997407853603363,-0.3424830138683319,-0.11695370078086853,0.36219334602355957,-0.11987175047397614,0.5117245316505432,0.25466206669807434,0.32755163311958313,-0.05631369352340698,0.5158147215843201,-0.5590327382087708,0.04175718501210213,-0.5369299650192261,-0.8886486887931824,-0.27637192606925964,0.3980674147605896,-0.07773583382368088,-0.14212381839752197,0.45657578110694885,0.06487920135259628,-0.23808185756206512],[0.24633347988128662,-0.021234683692455292,-0.021395012736320496,-0.042530957609415054,-0.03946779668331146,0,0.13580752909183502,0],[0.3607911467552185,-0.7126173973083496,0.018689295276999474,0.22241955995559692,-0.46916839480400085,0.5027490854263306,0.7038382291793823,-0.2642335593700409,-0.48692408204078674,-0.3098524808883667,-0.21142560243606567,0.130207359790802,-0.1470368653535843,-0.3041210174560547,0.10890143364667892,0.05371304228901863,-0.10123700648546219,0.0779421329498291,0.24187646806240082,0.1486251950263977,-0.21526315808296204,0.08158687502145767,0.18472084403038025,0.0593748614192009,0.08579671382904053,0.33937013149261475,-0.016333218663930893,0.021903149783611298,-0.5748685598373413,-0.28799083828926086,-0.6502395272254944,-0.35636773705482483,-0.3417300581932068,0.28073325753211975,0.9273521900177002,0.13960349559783936,0.5822104811668396,-0.24338532984256744,-0.1808852255344391,0.1907227337360382],[0.20131930708885193,-0.19692425429821014,-0.14758719503879547,0.10502456873655319,-0.13550704717636108]]}